################################################################################
# Neural network connection values (weights and biases).
################################################################################
# Col  Name       Description
################################################################################
# 1    connection Neural network connection value.
# 2    t          Connection type (a = weight, b = bias).
# 3    index      Index enumerating weights.
# 4    l_s        Starting point layer (end point layer for biases).
# 5    n_s        Starting point neuron in starting layer (end point neuron for biases).
# 6    l_e        End point layer.
# 7    n_e        End point neuron in end layer.
################################################################################
#                      1 2         3     4     5     6     7
#             connection t     index   l_s   n_s   l_e   n_e
############################################################
  1.4897645661028420E+00 a         1     0     1     1     1
  2.0202025206462988E+00 a         2     0     1     1     2
 -1.5524343285621839E+01 a         3     0     1     1     3
 -1.6190453584512937E+01 a         4     0     1     1     4
 -1.6617171968260919E+01 a         5     0     1     1     5
  1.0174059627317929E+01 a         6     0     1     1     6
 -1.4763129203723679E+00 a         7     0     1     1     7
 -2.5255062923065106E+00 a         8     0     1     1     8
 -4.5135589692314948E-01 a         9     0     1     1     9
 -9.3000230192791644E+00 a        10     0     1     1    10
  3.0970078654773054E+00 a        11     0     1     1    11
 -1.8969360989169484E+01 a        12     0     1     1    12
  2.8289815763279467E+01 a        13     0     1     1    13
  1.8751995757497024E+01 a        14     0     1     1    14
 -3.0152442310762250E+01 a        15     0     1     1    15
 -3.6172431221726384E+01 a        16     0     1     1    16
  9.3172948240597400E+00 a        17     0     1     1    17
 -1.5134614482773124E+01 a        18     0     1     1    18
 -3.1733566732314773E+00 a        19     0     1     1    19
  6.4316704788656418E+00 a        20     0     1     1    20
 -1.7182093064445634E+00 a        21     0     2     1     1
  7.1334905696784268E-01 a        22     0     2     1     2
  1.7749919064486339E+00 a        23     0     2     1     3
  1.2034986069951310E+00 a        24     0     2     1     4
  1.9217077178148221E+00 a        25     0     2     1     5
  1.1928745013191158E-01 a        26     0     2     1     6
  2.8457525210766443E-01 a        27     0     2     1     7
 -1.1402691679241743E+00 a        28     0     2     1     8
  2.9797397664390594E-02 a        29     0     2     1     9
 -7.8397142420677579E-01 a        30     0     2     1    10
 -1.2291670053066286E+00 a        31     0     2     1    11
  9.9873777466144875E-01 a        32     0     2     1    12
 -2.7371403887774841E+00 a        33     0     2     1    13
 -1.3500843789650123E+00 a        34     0     2     1    14
 -1.4955898774840268E+00 a        35     0     2     1    15
 -8.8093674478035766E-01 a        36     0     2     1    16
 -7.3555781061822367E-01 a        37     0     2     1    17
  2.8080700300545045E+00 a        38     0     2     1    18
 -9.6100828458983234E-01 a        39     0     2     1    19
  3.1638735614599878E-01 a        40     0     2     1    20
 -1.9168218717699153E+00 a        41     0     3     1     1
  1.2001557892853205E+00 a        42     0     3     1     2
  1.2140483793160681E+00 a        43     0     3     1     3
  9.3636880231178399E-01 a        44     0     3     1     4
  1.8906567009122235E+00 a        45     0     3     1     5
  5.6691804068247920E-01 a        46     0     3     1     6
  1.7044693922318488E-01 a        47     0     3     1     7
 -8.4344219513183061E-01 a        48     0     3     1     8
 -2.7732034499096314E-01 a        49     0     3     1     9
 -1.3180124147931849E+00 a        50     0     3     1    10
 -1.1542514572812967E+00 a        51     0     3     1    11
  3.2623368736804126E-01 a        52     0     3     1    12
 -1.4603166126800660E+00 a        53     0     3     1    13
 -2.5498481458104710E-01 a        54     0     3     1    14
 -2.7751917667566639E+00 a        55     0     3     1    15
 -1.1788265867726206E+00 a        56     0     3     1    16
  5.5274970671271149E-02 a        57     0     3     1    17
  2.5996799718383881E+00 a        58     0     3     1    18
 -1.1750739032350448E+00 a        59     0     3     1    19
  6.6431383892116513E-01 a        60     0     3     1    20
 -2.2369257092942805E+00 a        61     0     4     1     1
  1.1375069847988835E+00 a        62     0     4     1     2
 -9.5616403576592435E-01 a        63     0     4     1     3
 -7.4060389724476802E-02 a        64     0     4     1     4
  1.3585822798819092E+00 a        65     0     4     1     5
  1.1159650025836718E-01 a        66     0     4     1     6
 -3.3092067272709930E-01 a        67     0     4     1     7
 -7.7003898654556102E-01 a        68     0     4     1     8
 -3.1264330461422313E-01 a        69     0     4     1     9
 -5.3999030626133449E-01 a        70     0     4     1    10
 -7.8061440734117682E-01 a        71     0     4     1    11
 -1.9961213017177588E+00 a        72     0     4     1    12
  1.5164795787162588E+00 a        73     0     4     1    13
  2.3613329089417738E+00 a        74     0     4     1    14
 -5.0035549020707242E+00 a        75     0     4     1    15
 -2.4887471724339911E+00 a        76     0     4     1    16
  6.8029404632047674E-01 a        77     0     4     1    17
  1.1512541120515072E+00 a        78     0     4     1    18
 -1.4220136573284154E+00 a        79     0     4     1    19
  6.0704096751689618E-01 a        80     0     4     1    20
 -1.7563539754650794E+00 a        81     0     5     1     1
  2.7859405431641421E-01 a        82     0     5     1     2
 -4.5334644364874199E-01 a        83     0     5     1     3
  1.6742599374723575E+00 a        84     0     5     1     4
  3.1504547185374268E+00 a        85     0     5     1     5
 -2.1601756156043472E+00 a        86     0     5     1     6
 -9.8092772899776193E-02 a        87     0     5     1     7
  2.7154260345645526E-02 a        88     0     5     1     8
  1.1004404887852703E-02 a        89     0     5     1     9
  7.2661336351100825E-01 a        90     0     5     1    10
 -5.6577272521583954E-01 a        91     0     5     1    11
 -6.1615144234516160E-02 a        92     0     5     1    12
 -1.0485140545444089E+00 a        93     0     5     1    13
  7.7673995407732122E-01 a        94     0     5     1    14
  2.9654392784108391E-01 a        95     0     5     1    15
  2.3745436348909923E+00 a        96     0     5     1    16
  1.2512613798126512E-01 a        97     0     5     1    17
  2.4638742458454583E+00 a        98     0     5     1    18
 -7.1989048617406881E-01 a        99     0     5     1    19
 -1.9872975631157944E-01 a       100     0     5     1    20
 -1.4124076313733622E+00 a       101     0     6     1     1
  1.7473368218251889E-01 a       102     0     6     1     2
 -1.6661118675415706E-01 a       103     0     6     1     3
  1.3120560040677638E+00 a       104     0     6     1     4
  3.2965681056870597E+00 a       105     0     6     1     5
 -2.0785451690352388E+00 a       106     0     6     1     6
  2.3763385274089766E-02 a       107     0     6     1     7
 -3.9009736728455913E-01 a       108     0     6     1     8
 -5.6349307333183801E-02 a       109     0     6     1     9
  6.4328950369570992E-01 a       110     0     6     1    10
 -6.3538134248541644E-01 a       111     0     6     1    11
  2.1510737552995890E-01 a       112     0     6     1    12
 -1.2808394635946521E+00 a       113     0     6     1    13
  4.9779656737309280E-01 a       114     0     6     1    14
  4.5484381244275347E-02 a       115     0     6     1    15
  2.2569626684307251E+00 a       116     0     6     1    16
 -2.5837409401690831E-01 a       117     0     6     1    17
  1.7994070121105583E+00 a       118     0     6     1    18
 -4.8293894171114360E-01 a       119     0     6     1    19
 -2.9508397209531295E-01 a       120     0     6     1    20
 -1.2131832437719055E+00 a       121     0     7     1     1
  4.4465290830800419E-01 a       122     0     7     1     2
 -4.5225064172208673E-01 a       123     0     7     1     3
  1.2799429305370911E+00 a       124     0     7     1     4
  2.8600682399939061E+00 a       125     0     7     1     5
 -1.9752765215633905E+00 a       126     0     7     1     6
 -4.1544630007809305E-04 a       127     0     7     1     7
 -2.5823783105757814E-01 a       128     0     7     1     8
 -3.1579790130404806E-01 a       129     0     7     1     9
  5.5815834036177070E-01 a       130     0     7     1    10
 -1.8550097743474145E-01 a       131     0     7     1    11
  1.1688896964285474E-03 a       132     0     7     1    12
 -5.5204396620871188E-01 a       133     0     7     1    13
 -2.8081540109155329E-02 a       134     0     7     1    14
  1.1172179957417885E-02 a       135     0     7     1    15
  2.0666126543358523E+00 a       136     0     7     1    16
 -3.8906219774109668E-01 a       137     0     7     1    17
  1.8101313478994581E+00 a       138     0     7     1    18
 -6.5162372176059835E-01 a       139     0     7     1    19
  2.4351506374099868E-01 a       140     0     7     1    20
 -1.2592439756215970E+00 a       141     0     8     1     1
  8.6951646706594068E-02 a       142     0     8     1     2
 -5.7161972272477628E-04 a       143     0     8     1     3
  6.6514573913266939E-01 a       144     0     8     1     4
  2.5527627370966015E+00 a       145     0     8     1     5
 -1.7682973967499365E+00 a       146     0     8     1     6
  1.2270094040746374E-01 a       147     0     8     1     7
 -3.4931786684339677E-01 a       148     0     8     1     8
 -2.6065327680001271E-01 a       149     0     8     1     9
  2.3439399678618891E-01 a       150     0     8     1    10
 -3.1020244607344022E-01 a       151     0     8     1    11
 -1.5699454090879411E-01 a       152     0     8     1    12
 -2.2917303443060150E-01 a       153     0     8     1    13
  1.9820373054748081E-01 a       154     0     8     1    14
 -3.3813248599903817E-01 a       155     0     8     1    15
  1.7034334184605149E+00 a       156     0     8     1    16
 -2.2723848998125254E-01 a       157     0     8     1    17
  1.9403314764495172E+00 a       158     0     8     1    18
 -7.4239770566468333E-01 a       159     0     8     1    19
  3.8564152095885806E-01 a       160     0     8     1    20
 -1.1490987584326096E+00 a       161     0     9     1     1
  3.2357445968676796E-01 a       162     0     9     1     2
 -2.9219900413300898E-01 a       163     0     9     1     3
  6.4663585849995020E-01 a       164     0     9     1     4
  1.8759534400632569E+00 a       165     0     9     1     5
 -1.1935105350641173E+00 a       166     0     9     1     6
  1.7386197188190622E-01 a       167     0     9     1     7
 -5.3826119239935510E-01 a       168     0     9     1     8
 -4.4240431734361610E-02 a       169     0     9     1     9
  1.2305877181927208E-03 a       170     0     9     1    10
 -4.8929443676733256E-02 a       171     0     9     1    11
 -3.6098276344900954E-01 a       172     0     9     1    12
 -6.0572801349409441E-02 a       173     0     9     1    13
  1.4013724107771322E-01 a       174     0     9     1    14
 -5.2416587707348572E-01 a       175     0     9     1    15
  1.2158322681543314E+00 a       176     0     9     1    16
  3.0009622177115941E-01 a       177     0     9     1    17
  1.6434838412347539E+00 a       178     0     9     1    18
 -5.0236821475861737E-01 a       179     0     9     1    19
  2.7110370807918271E-01 a       180     0     9     1    20
 -6.0077166477183230E-01 a       181     0    10     1     1
  4.3375867664297590E-01 a       182     0    10     1     2
 -2.6489648133941435E-01 a       183     0    10     1     3
  2.1361893575374674E-01 a       184     0    10     1     4
  1.5263637352482560E+00 a       185     0    10     1     5
 -8.2077490695381650E-01 a       186     0    10     1     6
 -5.1365312642563478E-02 a       187     0    10     1     7
 -6.1295419785703364E-01 a       188     0    10     1     8
 -1.3870990454558624E-01 a       189     0    10     1     9
 -1.9142197221546375E-01 a       190     0    10     1    10
  1.5351418024023417E-01 a       191     0    10     1    11
 -5.2321715796621593E-01 a       192     0    10     1    12
  6.7266577518358128E-01 a       193     0    10     1    13
  2.3752337052850195E-01 a       194     0    10     1    14
 -1.3990279139137860E+00 a       195     0    10     1    15
  5.8084063846661715E-01 a       196     0    10     1    16
  1.6819650338496650E-01 a       197     0    10     1    17
  1.0984963994519032E+00 a       198     0    10     1    18
 -2.6908947283009271E-01 a       199     0    10     1    19
  2.5997648760341158E-01 a       200     0    10     1    20
 -6.5255234015635089E-01 a       201     0    11     1     1
  6.5337480979505635E-01 a       202     0    11     1     2
 -3.7801104038686406E-01 a       203     0    11     1     3
 -1.2616215331219408E-01 a       204     0    11     1     4
  8.8884706659114621E-01 a       205     0    11     1     5
 -6.2438484076990619E-01 a       206     0    11     1     6
 -1.3381019256941321E-01 a       207     0    11     1     7
 -1.6768707841287916E-01 a       208     0    11     1     8
 -2.4457222370999315E-01 a       209     0    11     1     9
 -3.2579285198199281E-01 a       210     0    11     1    10
  1.4964778348641233E-01 a       211     0    11     1    11
 -3.2582740160108814E-01 a       212     0    11     1    12
  7.8837477134169198E-01 a       213     0    11     1    13
  3.4237912594033837E-01 a       214     0    11     1    14
 -1.9716747004488406E+00 a       215     0    11     1    15
 -4.4996047287262878E-02 a       216     0    11     1    16
  5.0301441924738299E-01 a       217     0    11     1    17
  7.5877896432134750E-01 a       218     0    11     1    18
 -3.0586596446733272E-01 a       219     0    11     1    19
  3.7458591105313571E-01 a       220     0    11     1    20
 -1.2067636395074656E-01 a       221     0    12     1     1
  2.3903088948219581E-01 a       222     0    12     1     2
 -8.8313592473929781E-01 a       223     0    12     1     3
 -7.9454419937994913E-01 a       224     0    12     1     4
 -1.8526010788930593E-03 a       225     0    12     1     5
 -9.8919192905378109E-02 a       226     0    12     1     6
  1.1551165529625683E-01 a       227     0    12     1     7
 -4.3502339103079435E-01 a       228     0    12     1     8
 -8.3358873158226932E-02 a       229     0    12     1     9
 -1.0223878707688818E+00 a       230     0    12     1    10
  5.2126798775724043E-02 a       231     0    12     1    11
 -6.1584739557808255E-01 a       232     0    12     1    12
  1.4535632999878962E+00 a       233     0    12     1    13
  3.6026318898133003E-01 a       234     0    12     1    14
 -2.6985890861694908E+00 a       235     0    12     1    15
 -1.5743107966423682E+00 a       236     0    12     1    16
  8.3733148354332598E-01 a       237     0    12     1    17
  2.9925316521574641E-01 a       238     0    12     1    18
  8.5352208053198889E-02 a       239     0    12     1    19
  9.4152728198576396E-01 a       240     0    12     1    20
  2.6050990264989767E-03 a       241     0    13     1     1
  5.2012524204100663E-01 a       242     0    13     1     2
 -7.5626882260220318E-01 a       243     0    13     1     3
 -1.0379550582224550E+00 a       244     0    13     1     4
 -7.1732406303354301E-01 a       245     0    13     1     5
  4.6757794054882090E-01 a       246     0    13     1     6
 -1.4306935484371633E-01 a       247     0    13     1     7
 -2.0863538489488392E-01 a       248     0    13     1     8
 -1.8792225816355532E-01 a       249     0    13     1     9
 -1.3814853305495489E+00 a       250     0    13     1    10
  2.1931449373587408E-01 a       251     0    13     1    11
 -8.8242356099911123E-01 a       252     0    13     1    12
  1.4543917876896433E+00 a       253     0    13     1    13
  5.6268313097167393E-02 a       254     0    13     1    14
 -2.4096977565545372E+00 a       255     0    13     1    15
 -1.9749439783870968E+00 a       256     0    13     1    16
  4.1363980127194588E-01 a       257     0    13     1    17
  2.7212281639784636E-01 a       258     0    13     1    18
  4.4421680264500031E-02 a       259     0    13     1    19
  5.5768934439760198E-01 a       260     0    13     1    20
  1.0813333620312503E-01 a       261     0    14     1     1
  6.2159106259164140E-02 a       262     0    14     1     2
 -5.2220437682544707E-01 a       263     0    14     1     3
 -8.8885332358700742E-01 a       264     0    14     1     4
 -5.5644700831165972E-01 a       265     0    14     1     5
  4.9542327029760097E-01 a       266     0    14     1     6
 -5.9200289054179032E-02 a       267     0    14     1     7
 -2.5132122119228462E-01 a       268     0    14     1     8
  3.3745489221776392E-01 a       269     0    14     1     9
 -1.0003419703886445E+00 a       270     0    14     1    10
 -8.3937862443054415E-02 a       271     0    14     1    11
 -2.6992443015553386E-01 a       272     0    14     1    12
  8.3655219519219393E-01 a       273     0    14     1    13
  6.5399342186620246E-02 a       274     0    14     1    14
 -1.5902535754477198E+00 a       275     0    14     1    15
 -1.8730758638929381E+00 a       276     0    14     1    16
  2.2374356745261839E-01 a       277     0    14     1    17
  3.9063890737431861E-01 a       278     0    14     1    18
  8.9584085121598586E-02 a       279     0    14     1    19
  4.7031001237525794E-01 a       280     0    14     1    20
 -1.1774385156498603E-01 a       281     0    15     1     1
  3.5928988954171931E-01 a       282     0    15     1     2
 -5.1039982495113849E-03 a       283     0    15     1     3
 -6.8156354854722256E-01 a       284     0    15     1     4
 -4.0768806853313883E-01 a       285     0    15     1     5
  4.4926994581210622E-01 a       286     0    15     1     6
 -6.5708089861053545E-02 a       287     0    15     1     7
 -6.4400142646625302E-01 a       288     0    15     1     8
  3.2258003041353366E-02 a       289     0    15     1     9
 -8.3904997879960763E-01 a       290     0    15     1    10
 -1.3346899159819062E-01 a       291     0    15     1    11
  5.2205812543894545E-02 a       292     0    15     1    12
  7.4086661205581339E-01 a       293     0    15     1    13
 -1.1395992500657315E-01 a       294     0    15     1    14
 -9.3300453525673011E-01 a       295     0    15     1    15
 -1.2497037481339193E+00 a       296     0    15     1    16
  1.5421604631602998E-01 a       297     0    15     1    17
  2.2127548297220334E-01 a       298     0    15     1    18
  7.9236987335577672E-02 a       299     0    15     1    19
  4.9104406536060402E-01 a       300     0    15     1    20
 -3.0896522353516673E-02 a       301     0    16     1     1
  2.1625254746941414E-01 a       302     0    16     1     2
  9.2825363019784196E-02 a       303     0    16     1     3
 -2.9065170520014050E-01 a       304     0    16     1     4
 -5.1873420637583634E-01 a       305     0    16     1     5
  5.6857728320038525E-01 a       306     0    16     1     6
  2.1965719184575092E-01 a       307     0    16     1     7
 -5.5952101818913380E-01 a       308     0    16     1     8
 -1.3563456056579060E-01 a       309     0    16     1     9
 -6.2259021324068886E-01 a       310     0    16     1    10
  1.4654669404149648E-01 a       311     0    16     1    11
  3.9158922555198827E-01 a       312     0    16     1    12
 -1.2208995071333774E-01 a       313     0    16     1    13
 -6.3635747812061061E-01 a       314     0    16     1    14
  3.0916941913828733E-01 a       315     0    16     1    15
 -8.5811849262233841E-01 a       316     0    16     1    16
  3.8134064609089621E-02 a       317     0    16     1    17
  3.0292875034276689E-01 a       318     0    16     1    18
  3.0094781407630578E-01 a       319     0    16     1    19
  5.6235324993109237E-01 a       320     0    16     1    20
 -1.6382383239409243E-01 a       321     0    17     1     1
  1.9969939245789167E-01 a       322     0    17     1     2
  9.0212833461774600E-01 a       323     0    17     1     3
 -5.1274164684165173E-02 a       324     0    17     1     4
 -3.4408221285778334E-01 a       325     0    17     1     5
  9.5055054129326355E-02 a       326     0    17     1     6
  1.9224760841796490E-01 a       327     0    17     1     7
 -4.5698505408384033E-01 a       328     0    17     1     8
 -7.9889754877983013E-02 a       329     0    17     1     9
 -7.6459698410545840E-01 a       330     0    17     1    10
 -1.0068361815165520E-01 a       331     0    17     1    11
  7.5319037176256776E-01 a       332     0    17     1    12
 -7.5353954365130360E-01 a       333     0    17     1    13
 -7.7110712007900173E-01 a       334     0    17     1    14
  1.0515473249910132E+00 a       335     0    17     1    15
 -2.5986542452230793E-01 a       336     0    17     1    16
 -4.4670799502435932E-01 a       337     0    17     1    17
  5.1040073374652095E-01 a       338     0    17     1    18
 -1.4316229199598604E-01 a       339     0    17     1    19
 -4.1732211559888086E-02 a       340     0    17     1    20
 -1.8837586127316180E-01 a       341     0    18     1     1
  1.1294610375172648E-01 a       342     0    18     1     2
  1.0891737528716519E+00 a       343     0    18     1     3
  3.7218881874284632E-01 a       344     0    18     1     4
 -7.0056409124511915E-03 a       345     0    18     1     5
  2.1647714615137979E-03 a       346     0    18     1     6
  3.9086754811030838E-01 a       347     0    18     1     7
 -3.1531908570366740E-01 a       348     0    18     1     8
  9.9992487936321442E-02 a       349     0    18     1     9
 -6.7707773434504237E-01 a       350     0    18     1    10
  1.3308630150369170E-02 a       351     0    18     1    11
  1.4212879553898012E+00 a       352     0    18     1    12
 -1.4472343329033852E+00 a       353     0    18     1    13
 -1.1607956087379570E+00 a       354     0    18     1    14
  1.9544132057347741E+00 a       355     0    18     1    15
  5.1324847752756986E-01 a       356     0    18     1    16
 -4.0919888350274436E-01 a       357     0    18     1    17
  6.3967753674179784E-01 a       358     0    18     1    18
 -1.2766385541068811E-02 a       359     0    18     1    19
 -1.8922683448719502E-01 a       360     0    18     1    20
 -1.5457540987323354E-01 a       361     0    19     1     1
  1.8546210672587457E-01 a       362     0    19     1     2
  1.2109304438136208E+00 a       363     0    19     1     3
  5.1543376885683168E-01 a       364     0    19     1     4
  1.8275800204192930E-01 a       365     0    19     1     5
 -3.1948208369296982E-01 a       366     0    19     1     6
  1.0554566724754105E-01 a       367     0    19     1     7
 -7.3079118234467916E-02 a       368     0    19     1     8
  1.3308895472067672E-01 a       369     0    19     1     9
 -4.1537249947744503E-01 a       370     0    19     1    10
 -2.9046441477503104E-01 a       371     0    19     1    11
  1.6381174720705118E+00 a       372     0    19     1    12
 -1.8338476400316217E+00 a       373     0    19     1    13
 -1.2550230014944777E+00 a       374     0    19     1    14
  2.6434462158407053E+00 a       375     0    19     1    15
  1.1179564023474557E+00 a       376     0    19     1    16
 -8.7621292516808336E-01 a       377     0    19     1    17
  8.1363065842516735E-01 a       378     0    19     1    18
  8.3337697490985532E-02 a       379     0    19     1    19
 -3.0565293699074159E-01 a       380     0    19     1    20
 -3.1849409864552723E-02 a       381     0    20     1     1
 -1.0075516804343368E-01 a       382     0    20     1     2
  1.7252752269119143E+00 a       383     0    20     1     3
  5.3762073103469221E-01 a       384     0    20     1     4
  3.3621210561462184E-01 a       385     0    20     1     5
  2.0486783171335683E-02 a       386     0    20     1     6
 -1.7065494890388588E-01 a       387     0    20     1     7
 -7.9100647332115623E-02 a       388     0    20     1     8
 -4.7805786697566695E-02 a       389     0    20     1     9
  5.3062112902859896E-03 a       390     0    20     1    10
 -3.4477284113580683E-02 a       391     0    20     1    11
  1.7402034946302680E+00 a       392     0    20     1    12
 -2.6814887154050102E+00 a       393     0    20     1    13
 -1.8315066195963206E+00 a       394     0    20     1    14
  3.1350844968538341E+00 a       395     0    20     1    15
  1.8198740182822517E+00 a       396     0    20     1    16
 -9.6358167707448805E-01 a       397     0    20     1    17
  1.2837260503441870E+00 a       398     0    20     1    18
  2.0449535385245590E-02 a       399     0    20     1    19
  8.0345653801711603E-02 a       400     0    20     1    20
  2.0744746338019371E-01 a       401     0    21     1     1
 -2.4116517305865326E-01 a       402     0    21     1     2
  1.2990245974304506E-02 a       403     0    21     1     3
  1.0059597052818441E-01 a       404     0    21     1     4
  1.7854421891975888E-01 a       405     0    21     1     5
  1.5898161995492426E-02 a       406     0    21     1     6
  6.9130752457509978E-02 a       407     0    21     1     7
  2.5144970806966616E-01 a       408     0    21     1     8
 -2.6498931028461070E-01 a       409     0    21     1     9
  2.1980852237705373E-01 a       410     0    21     1    10
 -1.8053673068116519E-01 a       411     0    21     1    11
  1.6929767677905663E-01 a       412     0    21     1    12
  4.4408205003886288E-03 a       413     0    21     1    13
  3.4602583979371837E-01 a       414     0    21     1    14
  1.4824485459859954E-01 a       415     0    21     1    15
 -3.1552593781727289E-01 a       416     0    21     1    16
 -4.5377344798445893E-02 a       417     0    21     1    17
 -1.0829020251579398E-01 a       418     0    21     1    18
 -1.2924845686310099E-01 a       419     0    21     1    19
 -2.3556938150895176E-01 a       420     0    21     1    20
 -2.9010783330757234E-01 a       421     0    22     1     1
 -7.4802102556406208E-02 a       422     0    22     1     2
 -1.4074213641317529E-01 a       423     0    22     1     3
 -2.4421789232541261E-01 a       424     0    22     1     4
 -3.2694987921267060E-01 a       425     0    22     1     5
  1.1157912472269814E-01 a       426     0    22     1     6
  1.7324644057246946E-01 a       427     0    22     1     7
  1.8437464623025476E-01 a       428     0    22     1     8
 -2.8823275932984960E-01 a       429     0    22     1     9
 -3.0122630323252730E-01 a       430     0    22     1    10
  2.5428720580007260E-03 a       431     0    22     1    11
 -3.5552692073424208E-01 a       432     0    22     1    12
  3.3069908459591207E-01 a       433     0    22     1    13
  2.7803118990641396E-01 a       434     0    22     1    14
 -2.7943421085057424E-01 a       435     0    22     1    15
 -2.8039999738144550E-01 a       436     0    22     1    16
 -7.2522686200847425E-02 a       437     0    22     1    17
 -2.4754942288584317E-01 a       438     0    22     1    18
 -1.8063151751376136E-01 a       439     0    22     1    19
 -1.8836117874950939E-01 a       440     0    22     1    20
  2.7211662279647586E-01 a       441     0    23     1     1
  5.1547466026930433E-01 a       442     0    23     1     2
  1.6183101871598964E+00 a       443     0    23     1     3
 -1.3382111468857942E+00 a       444     0    23     1     4
  6.0063711625990779E-01 a       445     0    23     1     5
  1.8031952232631325E+00 a       446     0    23     1     6
 -7.0468534398690152E-01 a       447     0    23     1     7
  2.6002582176787931E-01 a       448     0    23     1     8
 -2.5685786129573551E-01 a       449     0    23     1     9
 -2.9523684615333616E+00 a       450     0    23     1    10
 -1.6770618139261178E+00 a       451     0    23     1    11
  6.7092559425878540E-01 a       452     0    23     1    12
 -1.0739298276514009E+00 a       453     0    23     1    13
  1.8725619630839561E+00 a       454     0    23     1    14
  7.9591342864415671E+00 a       455     0    23     1    15
 -6.0785279852496465E+00 a       456     0    23     1    16
  9.7604310492724486E-02 a       457     0    23     1    17
  1.0297180648139785E+00 a       458     0    23     1    18
 -1.4018127951161914E+00 a       459     0    23     1    19
  5.4844599082402357E-01 a       460     0    23     1    20
 -2.3369884728331765E+00 a       461     0    24     1     1
 -3.9374293103056940E-01 a       462     0    24     1     2
  9.9101144999644142E-01 a       463     0    24     1     3
 -2.1968872540163056E+00 a       464     0    24     1     4
  1.0252879262062381E-01 a       465     0    24     1     5
 -7.7095193654040428E-01 a       466     0    24     1     6
 -8.9330757971706032E-01 a       467     0    24     1     7
 -4.6885951325828951E-01 a       468     0    24     1     8
  2.3791950715664137E-01 a       469     0    24     1     9
 -1.0853323948577216E+00 a       470     0    24     1    10
  2.9051360083412638E+00 a       471     0    24     1    11
  1.4874693471523679E+00 a       472     0    24     1    12
 -1.4056854361404860E+00 a       473     0    24     1    13
 -1.1490545165081230E-01 a       474     0    24     1    14
  1.8144970773442967E-01 a       475     0    24     1    15
 -7.6475778516527870E-01 a       476     0    24     1    16
  1.0686432560726862E+00 a       477     0    24     1    17
 -2.4603068565843649E+00 a       478     0    24     1    18
 -8.6536779125558572E-01 a       479     0    24     1    19
 -5.6010796104050431E-01 a       480     0    24     1    20
 -2.0956472200658034E+00 a       481     0    25     1     1
  1.1036413379042531E+00 a       482     0    25     1     2
 -1.5596067322798601E+00 a       483     0    25     1     3
  1.7324880253538719E+00 a       484     0    25     1     4
  9.7891135651410366E-01 a       485     0    25     1     5
  2.1445126930290699E+00 a       486     0    25     1     6
  5.4030874976533881E-02 a       487     0    25     1     7
 -5.1607551828356180E-01 a       488     0    25     1     8
 -8.5777411823974622E-02 a       489     0    25     1     9
  9.1123788410557871E-01 a       490     0    25     1    10
 -3.0645862143535063E+00 a       491     0    25     1    11
 -1.1631033890842357E+00 a       492     0    25     1    12
 -1.2571694214048079E-01 a       493     0    25     1    13
  4.5617856375414236E+00 a       494     0    25     1    14
  1.7793503924016119E+00 a       495     0    25     1    15
  1.4068859660791400E+00 a       496     0    25     1    16
 -6.3843279242869100E-01 a       497     0    25     1    17
  8.5005903066376665E-01 a       498     0    25     1    18
 -1.8017552778986954E+00 a       499     0    25     1    19
 -6.9246105204277697E-01 a       500     0    25     1    20
 -4.1201676637358736E-01 a       501     0    26     1     1
  1.1116173847699244E-01 a       502     0    26     1     2
  1.7116592219741449E+00 a       503     0    26     1     3
  6.1701219318457047E-02 a       504     0    26     1     4
 -1.3879704002073404E-01 a       505     0    26     1     5
  1.0172201408236330E+00 a       506     0    26     1     6
  8.8082775926004789E-02 a       507     0    26     1     7
  5.0155572310873364E-01 a       508     0    26     1     8
 -1.9844813378175086E-01 a       509     0    26     1     9
 -7.0145223077001584E-01 a       510     0    26     1    10
  7.0477851488586193E-02 a       511     0    26     1    11
 -7.1472117162352988E-01 a       512     0    26     1    12
  7.3470938381368356E-01 a       513     0    26     1    13
  2.2208208257241591E+00 a       514     0    26     1    14
  9.4048044854865576E-01 a       515     0    26     1    15
  1.2353558968390190E+00 a       516     0    26     1    16
 -1.1111231410465652E-01 a       517     0    26     1    17
  4.5641443270766685E-01 a       518     0    26     1    18
 -4.8285611590809002E-01 a       519     0    26     1    19
 -2.2130354669485022E-01 a       520     0    26     1    20
  4.5262286003515656E-01 a       521     0    27     1     1
 -6.1528554603807450E-01 a       522     0    27     1     2
  2.2632690270774094E+00 a       523     0    27     1     3
  6.8332533449344235E-01 a       524     0    27     1     4
  7.5783411481637908E-01 a       525     0    27     1     5
 -1.9728922893803619E-01 a       526     0    27     1     6
  3.9249582472491734E-01 a       527     0    27     1     7
  3.8647607684058138E-01 a       528     0    27     1     8
  1.2724644943309935E-01 a       529     0    27     1     9
  5.0411863295572033E-02 a       530     0    27     1    10
  6.8666390755995554E-01 a       531     0    27     1    11
  8.8950966345837001E-01 a       532     0    27     1    12
 -1.0453539117492174E+00 a       533     0    27     1    13
 -3.1391059079486370E+00 a       534     0    27     1    14
 -8.0955973498802276E+00 a       535     0    27     1    15
  3.6180359650480804E+00 a       536     0    27     1    16
 -6.9206687556984436E-01 a       537     0    27     1    17
  1.4601906254180779E+00 a       538     0    27     1    18
  7.4437298679283026E-01 a       539     0    27     1    19
 -2.3796032887735521E-01 a       540     0    27     1    20
 -1.8048174218175821E+00 a       541     0    28     1     1
  1.2500365048764472E+00 a       542     0    28     1     2
  2.2251536090508730E+00 a       543     0    28     1     3
  1.0939212073980706E+00 a       544     0    28     1     4
  3.9265995432229595E+00 a       545     0    28     1     5
  8.7364889232280274E-01 a       546     0    28     1     6
  6.6399133832214063E-01 a       547     0    28     1     7
 -1.0630543042158438E+00 a       548     0    28     1     8
 -4.5201085090003373E-01 a       549     0    28     1     9
 -1.0601089882640271E+00 a       550     0    28     1    10
 -2.3056331961490999E+00 a       551     0    28     1    11
 -2.8935486449758485E-01 a       552     0    28     1    12
 -2.8686354912046080E-01 a       553     0    28     1    13
 -2.4659606182139262E+00 a       554     0    28     1    14
 -6.1702799367622143E+00 a       555     0    28     1    15
  2.0481461432535295E+00 a       556     0    28     1    16
  3.0965675764649225E-01 a       557     0    28     1    17
  3.9409429707828871E+00 a       558     0    28     1    18
 -1.9594814680878798E+00 a       559     0    28     1    19
  4.5398284871772721E-02 a       560     0    28     1    20
 -5.6155932175059664E-01 a       561     0    29     1     1
  3.3041100615360242E-01 a       562     0    29     1     2
  1.0876771372690595E+00 a       563     0    29     1     3
  1.3328178568032127E+00 a       564     0    29     1     4
  1.5749975741163387E+00 a       565     0    29     1     5
 -7.9881012367263071E-01 a       566     0    29     1     6
  3.3380632991643200E-01 a       567     0    29     1     7
 -3.4249486289440251E-01 a       568     0    29     1     8
 -1.2107492500402105E-01 a       569     0    29     1     9
 -1.9328449864805441E-01 a       570     0    29     1    10
 -1.3143868470631719E+00 a       571     0    29     1    11
  5.9178172521873218E-01 a       572     0    29     1    12
 -1.2761138961632015E+00 a       573     0    29     1    13
 -3.5277029462972431E-01 a       574     0    29     1    14
  2.6321435420867578E+00 a       575     0    29     1    15
  8.2292956937537687E-01 a       576     0    29     1    16
 -6.4781571324433007E-01 a       577     0    29     1    17
  1.2300899221679946E+00 a       578     0    29     1    18
 -5.4623767591607730E-01 a       579     0    29     1    19
  2.7676087202418723E-02 a       580     0    29     1    20
 -3.1370087398129926E-01 a       581     0    30     1     1
  3.1968777696006540E-01 a       582     0    30     1     2
 -1.0585074797566898E+00 a       583     0    30     1     3
 -4.8075423031086323E-01 a       584     0    30     1     4
 -4.2016660578887755E-01 a       585     0    30     1     5
  6.0481529291322145E-01 a       586     0    30     1     6
 -3.4555773669498668E-01 a       587     0    30     1     7
 -9.9835712689906167E-02 a       588     0    30     1     8
  1.5576562229994639E-01 a       589     0    30     1     9
 -5.6468990320452683E-01 a       590     0    30     1    10
  3.4057592479689269E-01 a       591     0    30     1    11
 -9.5595581931917406E-01 a       592     0    30     1    12
  1.1914811097539557E+00 a       593     0    30     1    13
  8.8722243250082866E-01 a       594     0    30     1    14
 -1.6966642444629507E+00 a       595     0    30     1    15
 -1.6025497947243423E+00 a       596     0    30     1    16
  4.7511283160028561E-01 a       597     0    30     1    17
 -5.2378634808367719E-01 a       598     0    30     1    18
 -3.2676538516735798E-01 a       599     0    30     1    19
  3.8486263628550205E-01 a       600     0    30     1    20
 -3.5135189196952538E-01 a       601     0    31     1     1
  3.4428054352430815E-01 a       602     0    31     1     2
 -1.5128940209463657E+00 a       603     0    31     1     3
 -6.9147786660093935E-01 a       604     0    31     1     4
 -1.2441245656024111E+00 a       605     0    31     1     5
  6.7658332157523648E-01 a       606     0    31     1     6
 -2.3294299795836679E-02 a       607     0    31     1     7
 -1.2379461689575012E-01 a       608     0    31     1     8
  2.9142939748355204E-02 a       609     0    31     1     9
 -5.4976518819695874E-01 a       610     0    31     1    10
  1.6889212194387260E-01 a       611     0    31     1    11
 -1.8748875552476527E+00 a       612     0    31     1    12
  2.2440702030516859E+00 a       613     0    31     1    13
  2.2970053843367224E+00 a       614     0    31     1    14
 -2.8264613353314285E+00 a       615     0    31     1    15
 -3.3070912049009569E+00 a       616     0    31     1    16
  8.3297883561634989E-01 a       617     0    31     1    17
 -1.6598855227890408E+00 a       618     0    31     1    18
 -2.0008416922473818E-01 a       619     0    31     1    19
  5.2476539016052792E-01 a       620     0    31     1    20
  1.4943633192644393E-01 a       621     0    32     1     1
 -3.3982266705351238E-01 a       622     0    32     1     2
 -4.9086363670031047E-01 a       623     0    32     1     3
  3.8877957090323878E-01 a       624     0    32     1     4
 -5.8809104748465169E-01 a       625     0    32     1     5
 -4.1464587981433448E-01 a       626     0    32     1     6
 -2.3500829430759113E-01 a       627     0    32     1     7
  4.7102775787091128E-01 a       628     0    32     1     8
  2.3478893370471568E-01 a       629     0    32     1     9
  1.2815969446210012E+00 a       630     0    32     1    10
  5.2974338330787274E-01 a       631     0    32     1    11
  3.1157588269894276E-01 a       632     0    32     1    12
 -6.0826906768201361E-01 a       633     0    32     1    13
  6.5577900454459004E-01 a       634     0    32     1    14
  1.9648211931870444E-02 a       635     0    32     1    15
  1.3591233511002751E-01 a       636     0    32     1    16
 -2.8214143629450594E-01 a       637     0    32     1    17
 -8.8639845186828237E-01 a       638     0    32     1    18
  1.6204643313539174E-01 a       639     0    32     1    19
 -4.9981603119752993E-01 a       640     0    32     1    20
 -1.8721147768978100E-01 a       641     0    33     1     1
 -6.0562997828082159E-02 a       642     0    33     1     2
 -2.3552955033874753E-01 a       643     0    33     1     3
  9.9117374529707736E-01 a       644     0    33     1     4
  4.5781809055183859E-01 a       645     0    33     1     5
 -2.9703765924334363E-01 a       646     0    33     1     6
 -1.1047683492469133E-01 a       647     0    33     1     7
  1.5790141517810080E-02 a       648     0    33     1     8
 -3.2285999023530026E-01 a       649     0    33     1     9
  6.3218534915604530E-01 a       650     0    33     1    10
 -3.7268861694147742E-01 a       651     0    33     1    11
 -1.3826274591649629E-01 a       652     0    33     1    12
 -7.4060453813007576E-01 a       653     0    33     1    13
  6.5168463372071961E-01 a       654     0    33     1    14
  2.2603504939050914E-01 a       655     0    33     1    15
  2.8242704262073320E-01 a       656     0    33     1    16
 -5.5578263331321831E-01 a       657     0    33     1    17
  1.3862549184432438E-01 a       658     0    33     1    18
 -3.3189259823898165E-01 a       659     0    33     1    19
 -5.1465142221120745E-02 a       660     0    33     1    20
  1.3239869755330369E-01 a       661     0    34     1     1
 -1.6432726314766261E-01 a       662     0    34     1     2
  2.8545630917042808E-01 a       663     0    34     1     3
 -5.3849415430786779E-02 a       664     0    34     1     4
 -4.6613999472843455E-02 a       665     0    34     1     5
 -1.8807028978551976E-01 a       666     0    34     1     6
  2.2634755573476847E-01 a       667     0    34     1     7
  1.4272786095041157E-01 a       668     0    34     1     8
  2.6450088584435894E-01 a       669     0    34     1     9
  1.6328427609084872E-02 a       670     0    34     1    10
 -3.6824996799911786E-01 a       671     0    34     1    11
  2.0014204606517363E-01 a       672     0    34     1    12
  1.7921435802689603E-01 a       673     0    34     1    13
 -3.0968246912650484E-02 a       674     0    34     1    14
  3.5266652276981447E-01 a       675     0    34     1    15
  1.0643283195539198E-01 a       676     0    34     1    16
  1.4130932197811488E-01 a       677     0    34     1    17
  3.5570634989149952E-01 a       678     0    34     1    18
  2.0060369000071482E-01 a       679     0    34     1    19
 -1.9103064184517682E-01 a       680     0    34     1    20
  7.3620293625506442E-02 a       681     0    35     1     1
  1.9212991295643336E-01 a       682     0    35     1     2
 -3.3005822866220641E-01 a       683     0    35     1     3
 -4.9314967594323222E-01 a       684     0    35     1     4
  8.7276734266091882E-01 a       685     0    35     1     5
 -1.4883620700038829E-02 a       686     0    35     1     6
  1.6288228289805878E-01 a       687     0    35     1     7
 -7.1358528815541289E-01 a       688     0    35     1     8
 -1.2132928719322565E-01 a       689     0    35     1     9
 -6.9672945929409613E-01 a       690     0    35     1    10
 -1.4663248659924893E-01 a       691     0    35     1    11
 -3.9230707857509073E-01 a       692     0    35     1    12
  7.4123376068901115E-01 a       693     0    35     1    13
  3.1164502809846051E-01 a       694     0    35     1    14
 -1.4569188318037150E+00 a       695     0    35     1    15
 -2.8612300117574794E-02 a       696     0    35     1    16
  3.5118438265314200E-01 a       697     0    35     1    17
  2.8335630418064806E-01 a       698     0    35     1    18
 -2.8202242504266412E-01 a       699     0    35     1    19
  6.3161795125539044E-01 a       700     0    35     1    20
 -2.6821733584445184E-01 a       701     0    36     1     1
  1.2790527115193578E-01 a       702     0    36     1     2
 -4.4940758233651505E-02 a       703     0    36     1     3
  2.3710094227734402E-01 a       704     0    36     1     4
 -1.6108986159129576E-01 a       705     0    36     1     5
  3.2035540979367183E-01 a       706     0    36     1     6
 -3.8519399128455561E-02 a       707     0    36     1     7
  4.3086220880163416E-02 a       708     0    36     1     8
 -7.3676304862071440E-02 a       709     0    36     1     9
  2.5458584906555826E-01 a       710     0    36     1    10
  1.1135472017862290E-01 a       711     0    36     1    11
  1.4596625605964841E-01 a       712     0    36     1    12
  7.2339013412730455E-02 a       713     0    36     1    13
  3.2894814752264984E-01 a       714     0    36     1    14
 -1.3647263754121830E-01 a       715     0    36     1    15
 -1.4931658458334490E-01 a       716     0    36     1    16
  2.2652362633832110E-01 a       717     0    36     1    17
  7.7452974008443129E-02 a       718     0    36     1    18
 -7.4882514356604896E-02 a       719     0    36     1    19
 -6.9421472563927680E-02 a       720     0    36     1    20
 -2.0189377798344739E-02 a       721     0    37     1     1
 -7.6855093953804382E-02 a       722     0    37     1     2
 -4.1334853357382467E-01 a       723     0    37     1     3
 -7.0652393230185995E-01 a       724     0    37     1     4
 -6.8252369837464077E-01 a       725     0    37     1     5
  1.0681891401283397E-01 a       726     0    37     1     6
 -2.7704374077474914E-01 a       727     0    37     1     7
 -1.0067350131562931E-01 a       728     0    37     1     8
  2.0546065159067878E-01 a       729     0    37     1     9
 -2.6695964752420204E-01 a       730     0    37     1    10
  2.2747540598735176E-02 a       731     0    37     1    11
 -3.2622291520806301E-01 a       732     0    37     1    12
  7.2969786454035257E-01 a       733     0    37     1    13
  3.2965213634062011E-02 a       734     0    37     1    14
 -1.4291654762689439E+00 a       735     0    37     1    15
 -4.4449148015248718E-01 a       736     0    37     1    16
  1.0682363241440597E-01 a       737     0    37     1    17
 -5.5928120955030047E-01 a       738     0    37     1    18
 -1.6434283444986333E-01 a       739     0    37     1    19
  2.0717881181714795E-01 a       740     0    37     1    20
 -8.2178058157415260E-02 a       741     0    38     1     1
  2.7344107522525407E-01 a       742     0    38     1     2
  4.3279059692803837E-02 a       743     0    38     1     3
 -3.1142988305549074E-01 a       744     0    38     1     4
 -2.1319712606593683E-01 a       745     0    38     1     5
  3.0771754774825905E-01 a       746     0    38     1     6
  1.5346421351734349E-01 a       747     0    38     1     7
 -1.4633647771323602E-01 a       748     0    38     1     8
 -8.2291382771626037E-02 a       749     0    38     1     9
  3.6885652042915849E-02 a       750     0    38     1    10
  8.8923979740577766E-02 a       751     0    38     1    11
 -2.6552195482428120E-01 a       752     0    38     1    12
 -2.4660373908174568E-01 a       753     0    38     1    13
  3.1612933513032143E-01 a       754     0    38     1    14
 -3.5485229112024713E-01 a       755     0    38     1    15
 -3.4948333463884146E-01 a       756     0    38     1    16
 -1.8706115438279255E-01 a       757     0    38     1    17
  2.9767342786777864E-02 a       758     0    38     1    18
 -1.7323728213155354E-03 a       759     0    38     1    19
  3.2344239645568956E-02 a       760     0    38     1    20
  1.6857221450553214E-01 a       761     0    39     1     1
 -1.0813785172152270E-01 a       762     0    39     1     2
 -8.5557453198285657E-02 a       763     0    39     1     3
 -4.2241089420599198E-01 a       764     0    39     1     4
  6.3430639014614737E-02 a       765     0    39     1     5
 -1.0228152218643322E-01 a       766     0    39     1     6
 -2.3541303984937134E-01 a       767     0    39     1     7
 -1.2884320242385081E-01 a       768     0    39     1     8
 -2.3507124856568307E-01 a       769     0    39     1     9
 -1.2833189399273692E-01 a       770     0    39     1    10
 -1.5588863098363348E-01 a       771     0    39     1    11
 -2.7871579077197733E-01 a       772     0    39     1    12
 -8.9406372936150866E-03 a       773     0    39     1    13
  2.1375450779126756E-01 a       774     0    39     1    14
 -3.2057245899113013E-01 a       775     0    39     1    15
 -3.8209168040785241E-01 a       776     0    39     1    16
  1.3605275071440995E-01 a       777     0    39     1    17
 -5.8218650882989106E-03 a       778     0    39     1    18
 -2.6433707624162833E-01 a       779     0    39     1    19
  1.2660279203739264E-01 a       780     0    39     1    20
 -9.2297825976551534E-02 a       781     0    40     1     1
 -1.6090656960060834E-01 a       782     0    40     1     2
  1.3737847577468126E-01 a       783     0    40     1     3
  8.2376513006351945E-02 a       784     0    40     1     4
  1.8807585932389823E-02 a       785     0    40     1     5
 -1.1420317070967226E-01 a       786     0    40     1     6
  1.1734302527413573E-01 a       787     0    40     1     7
  4.3351919606652627E-02 a       788     0    40     1     8
 -1.2243526189561971E-01 a       789     0    40     1     9
  1.2294790802561054E-01 a       790     0    40     1    10
  3.0265314271778437E-01 a       791     0    40     1    11
 -6.4909631679086380E-02 a       792     0    40     1    12
 -3.8675844328155899E-02 a       793     0    40     1    13
 -1.4838692616978092E-02 a       794     0    40     1    14
 -1.7092897556876055E-02 a       795     0    40     1    15
  1.2617007717539366E-01 a       796     0    40     1    16
  2.4000498934859130E-01 a       797     0    40     1    17
  1.3572264857000341E-01 a       798     0    40     1    18
 -1.1148663680521462E-02 a       799     0    40     1    19
  1.0890984068824874E-01 a       800     0    40     1    20
  4.2688993048430948E-02 a       801     0    41     1     1
  2.0807229911172428E-01 a       802     0    41     1     2
  7.6706392873463924E-02 a       803     0    41     1     3
 -3.1014403304931060E-01 a       804     0    41     1     4
 -3.0758470932600285E-01 a       805     0    41     1     5
  2.2960576766972141E-01 a       806     0    41     1     6
 -2.1935572295124978E-01 a       807     0    41     1     7
 -3.7868228973137311E-02 a       808     0    41     1     8
  1.8444618177092906E-01 a       809     0    41     1     9
 -2.7475236622081501E-02 a       810     0    41     1    10
 -6.6366367984154073E-02 a       811     0    41     1    11
 -3.0145952273251665E-02 a       812     0    41     1    12
  2.7610138236264498E-01 a       813     0    41     1    13
 -2.2234802556782875E-02 a       814     0    41     1    14
  7.6647767115408990E-03 a       815     0    41     1    15
 -2.5202782734385332E-01 a       816     0    41     1    16
  2.6949060576028816E-01 a       817     0    41     1    17
 -1.2187205855366688E-01 a       818     0    41     1    18
  8.0269488171585524E-02 a       819     0    41     1    19
  1.2181739955730320E-01 a       820     0    41     1    20
 -2.5535257022450915E-02 a       821     0    42     1     1
  2.5649743347410980E-01 a       822     0    42     1     2
 -2.5006862089045362E-01 a       823     0    42     1     3
  6.3157158046108636E-02 a       824     0    42     1     4
 -5.9322873482603747E-02 a       825     0    42     1     5
  2.2028591654496407E-01 a       826     0    42     1     6
 -2.5785389246007340E-04 a       827     0    42     1     7
 -8.5661989005801825E-02 a       828     0    42     1     8
 -2.4497672306563611E-01 a       829     0    42     1     9
  1.0317435281828483E-01 a       830     0    42     1    10
  6.1793776466819291E-03 a       831     0    42     1    11
  2.7581517163498903E-01 a       832     0    42     1    12
 -9.3074808891350780E-02 a       833     0    42     1    13
 -1.2004641028847725E-01 a       834     0    42     1    14
 -7.9611326403093555E-02 a       835     0    42     1    15
 -1.5331008565945181E-01 a       836     0    42     1    16
 -3.4523177281064098E-02 a       837     0    42     1    17
 -3.1033763753824573E-01 a       838     0    42     1    18
  6.6741620159216516E-02 a       839     0    42     1    19
 -1.8805159333376946E-02 a       840     0    42     1    20
 -7.1340423402609974E-05 a       841     0    43     1     1
  8.1982780805140570E-02 a       842     0    43     1     2
  8.3620905169301957E-02 a       843     0    43     1     3
  1.2433527197192306E-02 a       844     0    43     1     4
 -1.7510602442198586E-01 a       845     0    43     1     5
 -9.8521888197815322E-02 a       846     0    43     1     6
 -1.8633326931345393E-01 a       847     0    43     1     7
 -2.5750703086204685E-01 a       848     0    43     1     8
 -2.6378201943213242E-01 a       849     0    43     1     9
  1.1912704053796652E-01 a       850     0    43     1    10
 -1.8277847170325981E-01 a       851     0    43     1    11
  1.3777051644962993E-01 a       852     0    43     1    12
 -3.6211406824890910E-03 a       853     0    43     1    13
  2.4807172890675758E-01 a       854     0    43     1    14
 -3.0137193115659278E-01 a       855     0    43     1    15
 -1.2876512190861952E-01 a       856     0    43     1    16
  2.6435027866006516E-01 a       857     0    43     1    17
  9.6363634451541544E-02 a       858     0    43     1    18
  3.2343017041987415E-02 a       859     0    43     1    19
 -2.4539317413426250E-02 a       860     0    43     1    20
 -4.7456748589912201E-01 a       861     0    44     1     1
 -1.3792885190682280E+00 a       862     0    44     1     2
 -3.5801476233439828E+00 a       863     0    44     1     3
 -3.4475521645003910E+00 a       864     0    44     1     4
 -2.5005554155643903E+00 a       865     0    44     1     5
  2.1451792880000528E-01 a       866     0    44     1     6
 -1.2339863255146259E+00 a       867     0    44     1     7
  1.3958411578245025E+00 a       868     0    44     1     8
  1.0415717547296821E+00 a       869     0    44     1     9
  7.0749181454298538E-01 a       870     0    44     1    10
  4.9590592451030320E+00 a       871     0    44     1    11
 -1.6327931107490470E+00 a       872     0    44     1    12
  3.9042804266850668E+00 a       873     0    44     1    13
  1.7446750545683418E+00 a       874     0    44     1    14
  8.2715151187186109E+00 a       875     0    44     1    15
  2.6773661824137247E+00 a       876     0    44     1    16
  1.9189534454500756E+00 a       877     0    44     1    17
 -1.0076986286518645E+00 a       878     0    44     1    18
  2.7548355882163600E+00 a       879     0    44     1    19
  6.6786085423618402E-01 a       880     0    44     1    20
 -2.9559801640756063E-02 a       881     0    45     1     1
  5.3221222881051758E-02 a       882     0    45     1     2
 -6.6002729362348897E-02 a       883     0    45     1     3
 -5.8633438098152291E-01 a       884     0    45     1     4
  1.0403794660465589E-01 a       885     0    45     1     5
  4.8694482083517898E-02 a       886     0    45     1     6
  2.2906515431581639E-01 a       887     0    45     1     7
 -1.3267116176528401E-01 a       888     0    45     1     8
  1.0404094051411331E-01 a       889     0    45     1     9
 -5.4496108924871345E-01 a       890     0    45     1    10
  3.7580868882322621E-02 a       891     0    45     1    11
 -3.9099997649274493E-01 a       892     0    45     1    12
  5.9068832561339590E-01 a       893     0    45     1    13
  1.4161117929531444E-01 a       894     0    45     1    14
 -4.8988958438064523E-01 a       895     0    45     1    15
 -1.9534626761197921E-01 a       896     0    45     1    16
  1.2182347262251778E-01 a       897     0    45     1    17
 -3.8174447495161572E-02 a       898     0    45     1    18
 -1.5867344608926040E-01 a       899     0    45     1    19
  1.4723582310379815E-01 a       900     0    45     1    20
  2.9613371848557866E-02 b       901     1     1
 -6.1384749268241212E-01 b       902     1     2
  8.1064198627939899E-02 b       903     1     3
  8.7157590215313585E-01 b       904     1     4
 -2.9609926006278546E+00 b       905     1     5
  2.8699051844896500E-01 b       906     1     6
 -3.0183444946992710E-01 b       907     1     7
  8.3001254770411970E-01 b       908     1     8
  5.4673456995500663E-02 b       909     1     9
  1.5000164030049070E+00 b       910     1    10
  6.6944803916586482E-01 b       911     1    11
  1.8005839922696962E+00 b       912     1    12
 -2.8570834350254839E+00 b       913     1    13
 -4.6769313248266753E-01 b       914     1    14
  6.6966506084689268E+00 b       915     1    15
 -4.8718778480342859E+00 b       916     1    16
 -8.0906074704012354E-01 b       917     1    17
 -2.8213908887826116E+00 b       918     1    18
  6.9690856553885316E-01 b       919     1    19
 -7.2750016458970690E-01 b       920     1    20
  4.3558502643755254E-01 a       921     1     1     2     1
 -1.7620684874986581E-01 a       922     1     1     2     2
  4.4150357657177036E-01 a       923     1     1     2     3
 -9.5248628372458721E-01 a       924     1     1     2     4
 -4.9825343861197291E-01 a       925     1     1     2     5
 -1.7909491375869832E-01 a       926     1     1     2     6
 -1.9544294361651390E-01 a       927     1     1     2     7
  1.6108708329444590E-01 a       928     1     1     2     8
 -2.5496294164719752E-01 a       929     1     1     2     9
  7.6692660605623497E-01 a       930     1     1     2    10
  3.3164055883784932E-02 a       931     1     1     2    11
  4.7881832182403855E-01 a       932     1     1     2    12
  1.2486013807035288E+00 a       933     1     1     2    13
 -2.6962554488606716E-01 a       934     1     1     2    14
 -8.9305140540980810E-01 a       935     1     1     2    15
  9.6259214884912025E-01 a       936     1     1     2    16
  1.2005195741819129E-01 a       937     1     1     2    17
 -7.3198314974003387E-01 a       938     1     1     2    18
  7.1024452311763786E-01 a       939     1     1     2    19
 -8.4311968128147097E-01 a       940     1     1     2    20
  2.2150082464870419E-01 a       941     1     2     2     1
  3.2205706681961721E-01 a       942     1     2     2     2
 -6.3205542937678841E-02 a       943     1     2     2     3
 -1.0607506766704364E+00 a       944     1     2     2     4
 -1.8144890931614482E-01 a       945     1     2     2     5
  1.0413649373594844E-01 a       946     1     2     2     6
 -2.1535336391985974E-01 a       947     1     2     2     7
  7.1595657501510368E-01 a       948     1     2     2     8
  1.7261822942705993E-01 a       949     1     2     2     9
 -2.6426318768754748E-02 a       950     1     2     2    10
  5.7608475811324078E-01 a       951     1     2     2    11
  1.1815451662827965E+00 a       952     1     2     2    12
  1.7930287850714228E+00 a       953     1     2     2    13
 -1.4239324074463533E+00 a       954     1     2     2    14
 -7.4246720290989360E-02 a       955     1     2     2    15
  1.7312914685008225E+00 a       956     1     2     2    16
  1.2858953682236063E+00 a       957     1     2     2    17
  1.3050216419309901E-01 a       958     1     2     2    18
  4.3005885357538653E-01 a       959     1     2     2    19
  2.7713099704979377E-01 a       960     1     2     2    20
 -4.5073835579130989E-01 a       961     1     3     2     1
 -8.4522181601449964E-01 a       962     1     3     2     2
  3.1615055352391208E-01 a       963     1     3     2     3
  2.8355762117935250E+00 a       964     1     3     2     4
 -9.7495144262685407E-02 a       965     1     3     2     5
  4.2154416049671500E-01 a       966     1     3     2     6
  5.1535244762018428E-01 a       967     1     3     2     7
 -1.0627999404963850E+00 a       968     1     3     2     8
  5.8063954782130323E-01 a       969     1     3     2     9
 -6.3869027505218634E-01 a       970     1     3     2    10
 -1.7750564781679685E+00 a       971     1     3     2    11
 -2.9031449752978151E+00 a       972     1     3     2    12
 -3.8787695255284711E+00 a       973     1     3     2    13
  2.7954466188144997E+00 a       974     1     3     2    14
 -6.2959129969523708E-01 a       975     1     3     2    15
 -3.3347007574942356E+00 a       976     1     3     2    16
 -2.1509955550376123E+00 a       977     1     3     2    17
  6.8709612680470600E-02 a       978     1     3     2    18
 -1.1751736000174402E+00 a       979     1     3     2    19
 -4.0174821161490865E-01 a       980     1     3     2    20
 -1.0789080430869438E+00 a       981     1     4     2     1
 -4.1065971480218283E-01 a       982     1     4     2     2
 -6.7628763863037111E-01 a       983     1     4     2     3
  2.7444548077003996E+00 a       984     1     4     2     4
  8.6665488337351348E-01 a       985     1     4     2     5
  5.0969533812054157E-01 a       986     1     4     2     6
  5.8176379751864715E-01 a       987     1     4     2     7
 -1.0741252992251680E+00 a       988     1     4     2     8
  1.1512704646824203E+00 a       989     1     4     2     9
 -1.2486160159637378E+00 a       990     1     4     2    10
 -1.2901240641430622E+00 a       991     1     4     2    11
 -3.0747534223092190E+00 a       992     1     4     2    12
 -3.8598438278347693E+00 a       993     1     4     2    13
  4.2488972434717844E+00 a       994     1     4     2    14
  7.2270036805713389E-01 a       995     1     4     2    15
 -3.1901276106108081E+00 a       996     1     4     2    16
 -1.3835235348320780E+00 a       997     1     4     2    17
  8.7543156457782567E-01 a       998     1     4     2    18
 -9.4517620667241575E-01 a       999     1     4     2    19
  9.3932608237456006E-01 a      1000     1     4     2    20
 -2.6294901761734318E-01 a      1001     1     5     2     1
 -8.4727202338654084E-01 a      1002     1     5     2     2
  3.9265597831451177E-01 a      1003     1     5     2     3
  2.9729613942760178E+00 a      1004     1     5     2     4
  2.0691670152527911E-01 a      1005     1     5     2     5
  5.9761061334191024E-01 a      1006     1     5     2     6
  1.8561610454786182E-01 a      1007     1     5     2     7
 -1.6905720082828526E+00 a      1008     1     5     2     8
  9.8070338438204363E-01 a      1009     1     5     2     9
 -8.8349370807631433E-01 a      1010     1     5     2    10
 -3.4929582644087258E+00 a      1011     1     5     2    11
 -5.3246766895917563E+00 a      1012     1     5     2    12
 -4.4621902044669266E+00 a      1013     1     5     2    13
  6.1566543936208529E+00 a      1014     1     5     2    14
 -6.2243055212576748E-01 a      1015     1     5     2    15
 -3.9628031268313779E+00 a      1016     1     5     2    16
 -2.9368941611570603E+00 a      1017     1     5     2    17
  8.3124377621493539E-01 a      1018     1     5     2    18
 -1.1725904071765608E-01 a      1019     1     5     2    19
  5.6329222860015149E-01 a      1020     1     5     2    20
  3.7821194802426022E-01 a      1021     1     6     2     1
  4.7656032710798230E-01 a      1022     1     6     2     2
  1.3738459714176190E-01 a      1023     1     6     2     3
 -2.2798661281477717E+00 a      1024     1     6     2     4
 -1.8010572315491269E-01 a      1025     1     6     2     5
 -3.7113885308692274E-01 a      1026     1     6     2     6
 -3.4625047896134215E-01 a      1027     1     6     2     7
  1.2948122766451529E+00 a      1028     1     6     2     8
 -4.6829218004850653E-01 a      1029     1     6     2     9
  8.7309676033053119E-01 a      1030     1     6     2    10
  1.6387992587818192E+00 a      1031     1     6     2    11
  2.9985554292303060E+00 a      1032     1     6     2    12
  2.4704258401142445E+00 a      1033     1     6     2    13
 -3.0122038246263720E+00 a      1034     1     6     2    14
 -3.5476770242384281E-01 a      1035     1     6     2    15
  2.4763466552734452E+00 a      1036     1     6     2    16
  1.3484943662666140E+00 a      1037     1     6     2    17
 -6.9721803791067372E-01 a      1038     1     6     2    18
  4.2168171566699825E-01 a      1039     1     6     2    19
 -3.7252477747407869E-01 a      1040     1     6     2    20
 -1.8827432987694101E-01 a      1041     1     7     2     1
  2.6456720958257289E-02 a      1042     1     7     2     2
 -2.2727548919166260E-01 a      1043     1     7     2     3
  2.7864132933754149E-01 a      1044     1     7     2     4
  8.4229309355326420E-01 a      1045     1     7     2     5
 -4.4996708715994531E-02 a      1046     1     7     2     6
 -3.8708188025022627E-02 a      1047     1     7     2     7
 -1.5815463589625340E-02 a      1048     1     7     2     8
  6.0410359565722604E-01 a      1049     1     7     2     9
 -4.5108394583742056E-01 a      1050     1     7     2    10
 -4.9489419424741797E-02 a      1051     1     7     2    11
  2.1674662337494544E-01 a      1052     1     7     2    12
 -1.9976025047542420E-01 a      1053     1     7     2    13
  1.8843775583640979E-01 a      1054     1     7     2    14
  2.3891710048163922E-01 a      1055     1     7     2    15
  3.9900965748205747E-01 a      1056     1     7     2    16
  5.4457661728109297E-01 a      1057     1     7     2    17
  2.6437067537866865E-01 a      1058     1     7     2    18
  5.6989702520345589E-02 a      1059     1     7     2    19
  2.5703055747318393E-01 a      1060     1     7     2    20
 -3.8065368317415299E-01 a      1061     1     8     2     1
 -3.2611674893103387E-01 a      1062     1     8     2     2
  3.1649121618947706E-01 a      1063     1     8     2     3
  1.1963292677378889E+00 a      1064     1     8     2     4
 -5.6534470173393379E-02 a      1065     1     8     2     5
  6.8868152669210717E-02 a      1066     1     8     2     6
  6.9533852840994781E-01 a      1067     1     8     2     7
 -6.7527112478474105E-01 a      1068     1     8     2     8
  1.6348827386727419E-01 a      1069     1     8     2     9
 -1.5517651705085986E-01 a      1070     1     8     2    10
 -8.9618898493627785E-01 a      1071     1     8     2    11
 -1.2382235668826909E+00 a      1072     1     8     2    12
 -1.7932988746464578E+00 a      1073     1     8     2    13
  1.0822302985904548E+00 a      1074     1     8     2    14
 -2.5328186210596898E-01 a      1075     1     8     2    15
 -1.2675253515535279E+00 a      1076     1     8     2    16
 -6.0106704358519036E-01 a      1077     1     8     2    17
  9.5923646040218372E-02 a      1078     1     8     2    18
 -1.7434868947952642E-01 a      1079     1     8     2    19
 -9.9058171436041162E-02 a      1080     1     8     2    20
  1.1239513948432792E-01 a      1081     1     9     2     1
 -1.7053971424322559E-01 a      1082     1     9     2     2
  1.6627203012732708E-01 a      1083     1     9     2     3
  5.0121651550162472E-01 a      1084     1     9     2     4
  5.4115467307449105E-01 a      1085     1     9     2     5
 -3.1349896916451070E-01 a      1086     1     9     2     6
 -3.4634747496558016E-01 a      1087     1     9     2     7
  2.7297606930652123E-02 a      1088     1     9     2     8
  1.7106493865122860E-01 a      1089     1     9     2     9
 -4.9808828723694570E-01 a      1090     1     9     2    10
 -1.6850683181115225E-01 a      1091     1     9     2    11
 -8.2497567857272996E-02 a      1092     1     9     2    12
 -3.1943188865160366E-01 a      1093     1     9     2    13
 -2.8012680862986333E-01 a      1094     1     9     2    14
  6.0487643000097702E-01 a      1095     1     9     2    15
 -5.6509517158514411E-01 a      1096     1     9     2    16
 -2.3440136912524164E-02 a      1097     1     9     2    17
  4.6020503177443539E-01 a      1098     1     9     2    18
  2.4003700918751594E-01 a      1099     1     9     2    19
  1.2605791926667903E-01 a      1100     1     9     2    20
 -1.0566558001404129E+00 a      1101     1    10     2     1
 -9.2629442416202235E-01 a      1102     1    10     2     2
  6.8151054857288368E-02 a      1103     1    10     2     3
  3.4052411650278582E+00 a      1104     1    10     2     4
  5.3252448661303464E-01 a      1105     1    10     2     5
  7.4140371558498741E-01 a      1106     1    10     2     6
  4.1387018273496334E-01 a      1107     1    10     2     7
 -1.8986104975407265E+00 a      1108     1    10     2     8
  1.0078148578333885E+00 a      1109     1    10     2     9
 -1.0072710237620930E+00 a      1110     1    10     2    10
 -2.1498689619448110E+00 a      1111     1    10     2    11
 -3.4358639323991884E+00 a      1112     1    10     2    12
 -4.8088234681271045E+00 a      1113     1    10     2    13
  2.6009910687288089E+00 a      1114     1    10     2    14
  7.9196193227467099E-02 a      1115     1    10     2    15
 -4.1373877696107648E+00 a      1116     1    10     2    16
 -1.8084442602630886E+00 a      1117     1    10     2    17
  4.4096684544103154E-01 a      1118     1    10     2    18
 -1.1610670645363654E+00 a      1119     1    10     2    19
  2.6049266199683313E-01 a      1120     1    10     2    20
  3.8083299038490470E-01 a      1121     1    11     2     1
 -1.0012229514219655E+00 a      1122     1    11     2     2
  4.8753265647146588E-01 a      1123     1    11     2     3
 -1.9165145072512138E-01 a      1124     1    11     2     4
 -1.2139348430882735E+00 a      1125     1    11     2     5
 -1.0492938406264224E-01 a      1126     1    11     2     6
  6.3579134352415057E-01 a      1127     1    11     2     7
 -5.3356670534856654E-01 a      1128     1    11     2     8
 -2.9050062611410948E-01 a      1129     1    11     2     9
  1.0382169474359007E+00 a      1130     1    11     2    10
 -1.0272704231437102E+00 a      1131     1    11     2    11
 -1.5252305014686276E+00 a      1132     1    11     2    12
 -4.7635259251236761E-01 a      1133     1    11     2    13
  1.1642133735110587E+00 a      1134     1    11     2    14
 -1.3189947226729914E+00 a      1135     1    11     2    15
 -1.5737070322579836E+00 a      1136     1    11     2    16
 -1.3338372706458650E+00 a      1137     1    11     2    17
 -6.1253447311853604E-01 a      1138     1    11     2    18
  3.2137328633084866E-01 a      1139     1    11     2    19
 -1.3501683779116322E+00 a      1140     1    11     2    20
 -2.2574409547174814E+00 a      1141     1    12     2     1
 -6.6684326856574816E-01 a      1142     1    12     2     2
 -5.5222798984105814E-01 a      1143     1    12     2     3
  4.5101209251387537E+00 a      1144     1    12     2     4
  1.6725860550983331E+00 a      1145     1    12     2     5
  7.8825119158091017E-01 a      1146     1    12     2     6
  1.2202263483724189E+00 a      1147     1    12     2     7
 -1.9790188985218646E+00 a      1148     1    12     2     8
  9.7675105093274650E-01 a      1149     1    12     2     9
 -1.7272449460731041E+00 a      1150     1    12     2    10
 -1.9400776439509229E+00 a      1151     1    12     2    11
 -3.6039491079017321E+00 a      1152     1    12     2    12
 -6.1655213804672320E+00 a      1153     1    12     2    13
  3.1668289396514071E+00 a      1154     1    12     2    14
  5.4928402481599314E-01 a      1155     1    12     2    15
 -4.4140651700612530E+00 a      1156     1    12     2    16
 -1.5814663211013047E+00 a      1157     1    12     2    17
  1.4069642019874438E+00 a      1158     1    12     2    18
 -2.0180073417235866E+00 a      1159     1    12     2    19
  7.4211213150677224E-01 a      1160     1    12     2    20
  2.9168573763585330E+00 a      1161     1    13     2     1
  4.5064352010631309E-01 a      1162     1    13     2     2
  3.4006525838559265E-01 a      1163     1    13     2     3
 -5.6928624466731259E+00 a      1164     1    13     2     4
 -2.4686471301977324E+00 a      1165     1    13     2     5
 -1.0579282141031945E+00 a      1166     1    13     2     6
 -1.2079095787705125E+00 a      1167     1    13     2     7
  2.6361777888543374E+00 a      1168     1    13     2     8
 -1.7518356943256568E+00 a      1169     1    13     2     9
  1.7144707595411393E+00 a      1170     1    13     2    10
  2.6110892426981245E+00 a      1171     1    13     2    11
  4.3208431016970277E+00 a      1172     1    13     2    12
  8.4877045881055597E+00 a      1173     1    13     2    13
 -3.8910339106668435E+00 a      1174     1    13     2    14
 -9.3942810918173014E-01 a      1175     1    13     2    15
  6.6843399429079877E+00 a      1176     1    13     2    16
  1.9279029913496359E+00 a      1177     1    13     2    17
 -1.9955356503911854E+00 a      1178     1    13     2    18
  2.7513704479142045E+00 a      1179     1    13     2    19
 -1.6320291291237485E+00 a      1180     1    13     2    20
  1.5008024279456420E+00 a      1181     1    14     2     1
  4.7490765862169371E-01 a      1182     1    14     2     2
  8.5651628482721384E-02 a      1183     1    14     2     3
 -4.8310350152807118E+00 a      1184     1    14     2     4
 -1.1815237494158635E+00 a      1185     1    14     2     5
 -9.5940115496236533E-01 a      1186     1    14     2     6
 -7.0627021494073061E-01 a      1187     1    14     2     7
  2.3345262005839027E+00 a      1188     1    14     2     8
 -2.0741422791936128E+00 a      1189     1    14     2     9
  1.6888598369921155E+00 a      1190     1    14     2    10
  2.3854623936225221E+00 a      1191     1    14     2    11
  3.5507376748732868E+00 a      1192     1    14     2    12
  7.0134573805191565E+00 a      1193     1    14     2    13
 -2.6850678738990603E+00 a      1194     1    14     2    14
 -1.9029430050726670E-01 a      1195     1    14     2    15
  5.8604009353957380E+00 a      1196     1    14     2    16
  2.5222358511554925E+00 a      1197     1    14     2    17
 -1.5925621005068398E+00 a      1198     1    14     2    18
  1.8889330781874043E+00 a      1199     1    14     2    19
 -8.6634203727910630E-01 a      1200     1    14     2    20
 -1.7175757164632248E+00 a      1201     1    15     2     1
 -1.3288447297305752E+00 a      1202     1    15     2     2
 -4.0170631668431087E-02 a      1203     1    15     2     3
  6.6270465036172226E+00 a      1204     1    15     2     4
  1.4371403017240532E+00 a      1205     1    15     2     5
  9.6782215906650748E-01 a      1206     1    15     2     6
  1.1589366682119484E+00 a      1207     1    15     2     7
 -3.5947547050293696E+00 a      1208     1    15     2     8
  2.3431800369357303E+00 a      1209     1    15     2     9
 -1.5639322512268714E+00 a      1210     1    15     2    10
 -5.3160367684145822E+00 a      1211     1    15     2    11
 -7.6256376953541132E+00 a      1212     1    15     2    12
 -8.5844301834234180E+00 a      1213     1    15     2    13
  7.7927778676331130E+00 a      1214     1    15     2    14
  1.0751649431465646E-02 a      1215     1    15     2    15
 -7.2582682846431554E+00 a      1216     1    15     2    16
 -5.0315902239435415E+00 a      1217     1    15     2    17
  2.2898201088592702E+00 a      1218     1    15     2    18
 -1.6363986453159378E+00 a      1219     1    15     2    19
  1.3084831356896296E+00 a      1220     1    15     2    20
 -2.8488771073780690E+00 a      1221     1    16     2     1
 -1.3954087057955003E-01 a      1222     1    16     2     2
 -9.9039965636584970E-01 a      1223     1    16     2     3
  7.5413010898009203E+00 a      1224     1    16     2     4
  2.9142806443107410E+00 a      1225     1    16     2     5
  6.8453777530091720E-01 a      1226     1    16     2     6
  1.7070496263750001E+00 a      1227     1    16     2     7
 -3.0267071754851647E+00 a      1228     1    16     2     8
  2.9302450231640185E+00 a      1229     1    16     2     9
 -2.7439407067990902E+00 a      1230     1    16     2    10
 -3.6624567849446654E+00 a      1231     1    16     2    11
 -6.8653804586094518E+00 a      1232     1    16     2    12
 -1.0781607313763420E+01 a      1233     1    16     2    13
  6.9908307904259086E+00 a      1234     1    16     2    14
  1.5478623009888564E+00 a      1235     1    16     2    15
 -8.3852831257773222E+00 a      1236     1    16     2    16
 -3.6591903595122375E+00 a      1237     1    16     2    17
  2.8661157258075018E+00 a      1238     1    16     2    18
 -3.3227790896093690E+00 a      1239     1    16     2    19
  2.4835281790487471E+00 a      1240     1    16     2    20
  6.8884456931429772E-01 a      1241     1    17     2     1
  8.5505512570783337E-01 a      1242     1    17     2     2
 -1.8359060873887106E-01 a      1243     1    17     2     3
 -9.6471220844902883E-01 a      1244     1    17     2     4
  3.2023153927621445E-01 a      1245     1    17     2     5
 -3.1909833591551767E-01 a      1246     1    17     2     6
 -9.5088789369162541E-01 a      1247     1    17     2     7
  8.3504727593963568E-01 a      1248     1    17     2     8
  3.9592314834029432E-02 a      1249     1    17     2     9
 -1.5804747092835481E-01 a      1250     1    17     2    10
  6.3186866864462898E-01 a      1251     1    17     2    11
  2.0741164699021031E+00 a      1252     1    17     2    12
  2.1182039844411205E+00 a      1253     1    17     2    13
 -2.1089785912552919E+00 a      1254     1    17     2    14
  2.3233055065412431E-01 a      1255     1    17     2    15
  2.2274444419437298E+00 a      1256     1    17     2    16
  8.2375213779337142E-01 a      1257     1    17     2    17
  1.4746969543252381E-02 a      1258     1    17     2    18
  8.4600305442392321E-01 a      1259     1    17     2    19
 -8.5830945015159768E-02 a      1260     1    17     2    20
 -2.7574741082473603E-01 a      1261     1    18     2     1
 -4.4938242559173269E-01 a      1262     1    18     2     2
  2.0996889323796961E-01 a      1263     1    18     2     3
  2.9293693053198280E+00 a      1264     1    18     2     4
  9.0617597239683112E-01 a      1265     1    18     2     5
  6.0257933478587311E-01 a      1266     1    18     2     6
  1.0675312297569826E-01 a      1267     1    18     2     7
 -1.4744394010681798E+00 a      1268     1    18     2     8
  1.2037432697508852E+00 a      1269     1    18     2     9
 -5.7452625256588263E-01 a      1270     1    18     2    10
 -2.9908814121340788E+00 a      1271     1    18     2    11
 -4.1810148363857644E+00 a      1272     1    18     2    12
 -4.2907660664517433E+00 a      1273     1    18     2    13
  5.2110140562257978E+00 a      1274     1    18     2    14
 -3.4997297806395589E-01 a      1275     1    18     2    15
 -3.3431987266746894E+00 a      1276     1    18     2    16
 -2.9858952825533716E+00 a      1277     1    18     2    17
  8.5257348883488004E-01 a      1278     1    18     2    18
 -4.1108185621466364E-01 a      1279     1    18     2    19
  2.6095049957584043E-01 a      1280     1    18     2    20
 -8.2336201509539719E-01 a      1281     1    19     2     1
  1.1297534178915454E-01 a      1282     1    19     2     2
 -2.7322179300522215E-01 a      1283     1    19     2     3
  1.9418310822361542E+00 a      1284     1    19     2     4
  3.1470663121549564E-01 a      1285     1    19     2     5
  7.4940391255132979E-02 a      1286     1    19     2     6
  3.0306120550837751E-01 a      1287     1    19     2     7
 -8.5685912723017699E-01 a      1288     1    19     2     8
  3.3887756681818160E-01 a      1289     1    19     2     9
 -2.8532426990710497E-01 a      1290     1    19     2    10
 -7.1713063946330491E-01 a      1291     1    19     2    11
 -1.0235677092903142E+00 a      1292     1    19     2    12
 -2.5960424243841320E+00 a      1293     1    19     2    13
  1.9245346638013486E-01 a      1294     1    19     2    14
  2.4505378533741218E-01 a      1295     1    19     2    15
 -1.9967778528909452E+00 a      1296     1    19     2    16
 -7.5035418559414679E-01 a      1297     1    19     2    17
  8.1377533143391401E-01 a      1298     1    19     2    18
 -5.7870891878894715E-01 a      1299     1    19     2    19
  3.6542178799531355E-01 a      1300     1    19     2    20
  6.4839697110914085E-01 a      1301     1    20     2     1
 -7.8654747986797446E-03 a      1302     1    20     2     2
 -2.5092252288347316E-01 a      1303     1    20     2     3
 -1.9397996982345276E+00 a      1304     1    20     2     4
 -1.5977294754221763E-01 a      1305     1    20     2     5
 -1.4765699823160808E-01 a      1306     1    20     2     6
 -4.9364869749756335E-01 a      1307     1    20     2     7
  6.2322453202698502E-01 a      1308     1    20     2     8
 -6.9045913896630717E-01 a      1309     1    20     2     9
  3.6335598388879953E-01 a      1310     1    20     2    10
  1.3305271207285860E+00 a      1311     1    20     2    11
  1.7493744342695530E+00 a      1312     1    20     2    12
  2.5749351439002224E+00 a      1313     1    20     2    13
 -2.3169709150863507E+00 a      1314     1    20     2    14
  3.8526168350032786E-01 a      1315     1    20     2    15
  2.1943006233986559E+00 a      1316     1    20     2    16
  1.3326525298421004E+00 a      1317     1    20     2    17
 -5.6604934685741759E-01 a      1318     1    20     2    18
  3.8610549369380037E-01 a      1319     1    20     2    19
 -3.0689491257289386E-01 a      1320     1    20     2    20
 -2.4111051960728207E+00 b      1321     2     1
  2.3170109576378848E+00 b      1322     2     2
 -2.4408953051075861E+00 b      1323     2     3
 -2.1289090084127760E+00 b      1324     2     4
  2.2048986651569806E+00 b      1325     2     5
 -9.5799410014379294E-01 b      1326     2     6
  1.3504886944606737E-02 b      1327     2     7
  2.0015805123525405E+00 b      1328     2     8
 -3.5906360715652597E-01 b      1329     2     9
 -8.3641245070252990E-01 b      1330     2    10
  5.3582726191324204E+00 b      1331     2    11
  6.7336639392005218E+00 b      1332     2    12
  2.8149866500330933E+00 b      1333     2    13
 -7.6015365876587557E+00 b      1334     2    14
  3.0094629861740305E+00 b      1335     2    15
  3.3947857094755780E+00 b      1336     2    16
  5.2331520731620635E+00 b      1337     2    17
  6.1705450166482645E-01 b      1338     2    18
 -1.8066076818847618E+00 b      1339     2    19
  1.6995218767217215E+00 b      1340     2    20
  4.0752632735776517E+00 a      1341     2     1     3     1
  3.5023246384499860E+00 a      1342     2     2     3     1
 -5.7901749452322715E-01 a      1343     2     3     3     1
 -1.6111070287878643E+01 a      1344     2     4     3     1
 -2.7988087942181510E+00 a      1345     2     5     3     1
 -2.8607620208476261E+00 a      1346     2     6     3     1
 -3.1399653388218920E+00 a      1347     2     7     3     1
  8.2046396853967121E+00 a      1348     2     8     3     1
 -5.0164914687358255E+00 a      1349     2     9     3     1
  3.8856816591163761E+00 a      1350     2    10     3     1
  1.1971989499708565E+01 a      1351     2    11     3     1
  2.0325968573537750E+01 a      1352     2    12     3     1
  2.3048505210055033E+01 a      1353     2    13     3     1
 -2.1164742577001537E+01 a      1354     2    14     3     1
  7.6657906266022491E-01 a      1355     2    15     3     1
  1.9620904024926038E+01 a      1356     2    16     3     1
  1.1913700971866927E+01 a      1357     2    17     3     1
 -4.1289951823213880E+00 a      1358     2    18     3     1
  4.8021621853819338E+00 a      1359     2    19     3     1
 -1.9775656386677907E+00 a      1360     2    20     3     1
  3.5943102106674495E+01 b      1361     3     1
